digraph Tree {
node [shape=box, style="filled, rounded", color="black", fontname="helvetica"] ;
edge [fontname="helvetica"] ;
0 [label="Site EUI (kBtu/ft²) <= 16.05\nfriedman_mse = 1.0\nsamples = 6622\nvalue = 0.013", fillcolor="#eca36f"] ;
1 [label="Largest Property Use Type_Multifamily Housing <= 0.5\nfriedman_mse = 0.777\nsamples = 182\nvalue = 0.473", fillcolor="#eb9f68"] ;
0 -> 1 [labeldistance=2.5, labelangle=45, headlabel="True"] ;
2 [label="Property Id <= 5787663.0\nfriedman_mse = 0.996\nsamples = 66\nvalue = 0.061", fillcolor="#eca36e"] ;
1 -> 2 ;
3 [label="Year Built <= 1927.5\nfriedman_mse = 0.977\nsamples = 59\nvalue = 0.153", fillcolor="#eca26d"] ;
2 -> 3 ;
4 [label="Weather Normalized Site Electricity Intensity (kWh/ft²) <= 1.6\nfriedman_mse = 0.96\nsamples = 20\nvalue = -0.2", fillcolor="#eca572"] ;
3 -> 4 ;
5 [label="friedman_mse = 0.972\nsamples = 12\nvalue = 0.003", fillcolor="#eca36f"] ;
4 -> 5 ;
6 [label="friedman_mse = 0.438\nsamples = 8\nvalue = -0.081", fillcolor="#eca470"] ;
4 -> 6 ;
7 [label="Latitude <= 40.707\nfriedman_mse = 0.889\nsamples = 39\nvalue = 0.333", fillcolor="#eba06a"] ;
3 -> 7 ;
8 [label="friedman_mse = 0.84\nsamples = 10\nvalue = -0.024", fillcolor="#eca46f"] ;
7 -> 8 ;
9 [label="friedman_mse = 0.656\nsamples = 29\nvalue = 0.112", fillcolor="#eca26d"] ;
7 -> 9 ;
10 [label="friedman_mse = 0.49\nsamples = 7\nvalue = -0.152", fillcolor="#eca571"] ;
2 -> 10 ;
11 [label="Weather Normalized Site Electricity Intensity (kWh/ft²) <= 3.55\nfriedman_mse = 0.5\nsamples = 116\nvalue = 0.707", fillcolor="#eb9d65"] ;
1 -> 11 ;
12 [label="Property Id <= 5832218.5\nfriedman_mse = 0.192\nsamples = 79\nvalue = 0.899", fillcolor="#ea9b63"] ;
11 -> 12 ;
13 [label="Site EUI (kBtu/ft²) <= 13.35\nfriedman_mse = 0.107\nsamples = 73\nvalue = 0.945", fillcolor="#ea9b62"] ;
12 -> 13 ;
14 [label="friedman_mse = 0.0\nsamples = 57\nvalue = 0.001", fillcolor="#eca36f"] ;
13 -> 14 ;
15 [label="friedman_mse = 0.438\nsamples = 16\nvalue = 0.006", fillcolor="#eca36f"] ;
13 -> 15 ;
16 [label="friedman_mse = 0.889\nsamples = 6\nvalue = 0.001", fillcolor="#eca36f"] ;
12 -> 16 ;
17 [label="DOF Gross Floor Area <= 170979.0\nfriedman_mse = 0.912\nsamples = 37\nvalue = 0.297", fillcolor="#eca16b"] ;
11 -> 17 ;
18 [label="Site EUI (kBtu/ft²) <= 13.3\nfriedman_mse = 0.782\nsamples = 30\nvalue = 0.467", fillcolor="#eb9f69"] ;
17 -> 18 ;
19 [label="friedman_mse = 0.265\nsamples = 14\nvalue = 0.001", fillcolor="#eca36f"] ;
18 -> 19 ;
20 [label="friedman_mse = 0.984\nsamples = 16\nvalue = 0.0", fillcolor="#eca36f"] ;
18 -> 20 ;
21 [label="friedman_mse = 0.816\nsamples = 7\nvalue = -0.007", fillcolor="#eca36f"] ;
17 -> 21 ;
22 [label="log_Direct GHG Emissions (Metric Tons CO2e) <= 4.389\nfriedman_mse = 1.0\nsamples = 6440\nvalue = 0.0", fillcolor="#eca36f"] ;
0 -> 22 [labeldistance=2.5, labelangle=-45, headlabel="False"] ;
23 [label="DOF Gross Floor Area <= 213577.5\nfriedman_mse = 0.992\nsamples = 502\nvalue = -0.092", fillcolor="#eca470"] ;
22 -> 23 ;
24 [label="log_Direct GHG Emissions (Metric Tons CO2e) <= 4.266\nfriedman_mse = 0.976\nsamples = 386\nvalue = -0.155", fillcolor="#eca571"] ;
23 -> 24 ;
25 [label="Year Built <= 1917.0\nfriedman_mse = 0.988\nsamples = 352\nvalue = -0.108", fillcolor="#eca470"] ;
24 -> 25 ;
26 [label="friedman_mse = 0.97\nsamples = 63\nvalue = 0.109", fillcolor="#eca26d"] ;
25 -> 26 ;
27 [label="friedman_mse = 0.971\nsamples = 289\nvalue = -0.11", fillcolor="#eca471"] ;
25 -> 27 ;
28 [label="Weather Normalized Site Electricity Intensity (kWh/ft²) <= 8.85\nfriedman_mse = 0.581\nsamples = 34\nvalue = -0.647", fillcolor="#eda978"] ;
24 -> 28 ;
29 [label="friedman_mse = 0.859\nsamples = 16\nvalue = -0.219", fillcolor="#eca572"] ;
28 -> 29 ;
30 [label="friedman_mse = 0.21\nsamples = 18\nvalue = -10.381", fillcolor="#ffffff"] ;
28 -> 30 ;
31 [label="Weather Normalized Site Electricity Intensity (kWh/ft²) <= 11.7\nfriedman_mse = 0.985\nsamples = 116\nvalue = 0.121", fillcolor="#eca26d"] ;
23 -> 31 ;
32 [label="DOF Gross Floor Area <= 251561.0\nfriedman_mse = 0.977\nsamples = 59\nvalue = -0.153", fillcolor="#eca571"] ;
31 -> 32 ;
33 [label="friedman_mse = 0.673\nsamples = 14\nvalue = 0.797", fillcolor="#eb9c64"] ;
32 -> 33 ;
34 [label="friedman_mse = 0.857\nsamples = 45\nvalue = -0.702", fillcolor="#edaa79"] ;
32 -> 34 ;
35 [label="DOF Gross Floor Area <= 591519.5\nfriedman_mse = 0.837\nsamples = 57\nvalue = 0.404", fillcolor="#eba069"] ;
31 -> 35 ;
36 [label="friedman_mse = 0.527\nsamples = 32\nvalue = 3.892", fillcolor="#e58139"] ;
35 -> 36 ;
37 [label="friedman_mse = 0.998\nsamples = 25\nvalue = 0.266", fillcolor="#eca16b"] ;
35 -> 37 ;
38 [label="log_Direct GHG Emissions (Metric Tons CO2e) <= 4.401\nfriedman_mse = 1.0\nsamples = 5938\nvalue = 0.008", fillcolor="#eca36f"] ;
22 -> 38 ;
39 [label="friedman_mse = 0.0\nsamples = 8\nvalue = 1.787", fillcolor="#e99456"] ;
38 -> 39 ;
40 [label="Weather Normalized Site Electricity Intensity (kWh/ft²) <= 38.25\nfriedman_mse = 1.0\nsamples = 5930\nvalue = 0.006", fillcolor="#eca36f"] ;
38 -> 40 ;
41 [label="DOF Gross Floor Area <= 285356.0\nfriedman_mse = 1.0\nsamples = 5917\nvalue = 0.008", fillcolor="#eca36f"] ;
40 -> 41 ;
42 [label="friedman_mse = 1.0\nsamples = 5284\nvalue = 0.078", fillcolor="#eca36e"] ;
41 -> 42 ;
43 [label="friedman_mse = 0.996\nsamples = 633\nvalue = -0.158", fillcolor="#eca571"] ;
41 -> 43 ;
44 [label="Order <= 7803.0\nfriedman_mse = 0.71\nsamples = 13\nvalue = -0.538", fillcolor="#eda876"] ;
40 -> 44 ;
45 [label="friedman_mse = 0.0\nsamples = 6\nvalue = -5.671", fillcolor="#f6d5be"] ;
44 -> 45 ;
46 [label="friedman_mse = 0.98\nsamples = 7\nvalue = -0.085", fillcolor="#eca470"] ;
44 -> 46 ;
}